<?xml version="1.0"?>
<opencv_storage>
<stage9>
  <maxWeakCount>100</maxWeakCount>
  <stageThreshold>-2.3620362281799316e+00</stageThreshold>
  <weakClassifiers>
    <_>
      <internalNodes>
        0 -1 283309 -1.0542709060246125e-04</internalNodes>
      <leafValues>
        8.9285713434219360e-01 -6.0000002384185791e-01</leafValues></_>
    <_>
      <internalNodes>
        0 -1 161072 1.5343972481787205e-03</internalNodes>
      <leafValues>
        -6.0019016265869141e-01 7.2153151035308838e-01</leafValues></_>
    <_>
      <internalNodes>
        0 -1 108887 2.9483810067176819e-04</internalNodes>
      <leafValues>
        -4.3793854117393494e-01 8.0218070745468140e-01</leafValues></_>
    <_>
      <internalNodes>
        0 -1 73087 -8.1500165833858773e-06</internalNodes>
      <leafValues>
        9.3408864736557007e-01 -3.4625133872032166e-01</leafValues></_>
    <_>
      <internalNodes>
        0 -1 321344 -1.1615116382017732e-03</internalNodes>
      <leafValues>
        9.4930917024612427e-01 -2.0860144495964050e-01</leafValues></_>
    <_>
      <internalNodes>
        0 -1 328988 -2.1110968373250216e-04</internalNodes>
      <leafValues>
        9.2148333787918091e-01 -1.6073343157768250e-01</leafValues></_>
    <_>
      <internalNodes>
        0 -1 290272 -2.8301003112574108e-05</internalNodes>
      <leafValues>
        8.3447933197021484e-01 -2.1299774944782257e-01</leafValues></_>
    <_>
      <internalNodes>
        0 -1 5795 5.9422947466373444e-02</internalNodes>
      <leafValues>
        2.9127371311187744e-01 -7.9200935363769531e-01</leafValues></_>
    <_>
      <internalNodes>
        0 -1 299625 -1.0635209764586762e-04</internalNodes>
      <leafValues>
        7.8363204002380371e-01 -2.5883322954177856e-01</leafValues></_>
    <_>
      <internalNodes>
        0 -1 348869 9.0811023255810142e-05</internalNodes>
      <leafValues>
        3.0394515395164490e-01 -6.6540449857711792e-01</leafValues></_>
    <_>
      <internalNodes>
        0 -1 294694 4.7009630361571908e-04</internalNodes>
      <leafValues>
        -1.7000938951969147e-01 1.</leafValues></_>
    <_>
      <internalNodes>
        0 -1 53275 -7.5333374552428722e-03</internalNodes>
      <leafValues>
        1. -6.3403844833374023e-02</leafValues></_>
    <_>
      <internalNodes>
        0 -1 201684 -2.6974537831847556e-05</internalNodes>
      <leafValues>
        -6.3356298208236694e-01 1.9888751208782196e-01</leafValues></_>
    <_>
      <internalNodes>
        0 -1 239568 -8.5984182078391314e-04</internalNodes>
      <leafValues>
        9.4054251909255981e-01 -1.2991860508918762e-01</leafValues></_>
    <_>
      <internalNodes>
        0 -1 156943 -6.3005518168210983e-03</internalNodes>
      <leafValues>
        9.0562456846237183e-01 -5.4002698510885239e-02</leafValues></_>
    <_>
      <internalNodes>
        0 -1 241699 2.5056123733520508e-02</internalNodes>
      <leafValues>
        1.0400456935167313e-01 -1.</leafValues></_>
    <_>
      <internalNodes>
        0 -1 88722 1.2598681678355206e-05</internalNodes>
      <leafValues>
        -8.6761593818664551e-02 9.3183761835098267e-01</leafValues></_>
    <_>
      <internalNodes>
        0 -1 258541 -2.1805547177791595e-02</internalNodes>
      <leafValues>
        -1. 6.8686515092849731e-02</leafValues></_>
    <_>
      <internalNodes>
        0 -1 282573 -2.0226147898938507e-04</internalNodes>
      <leafValues>
        8.4868139028549194e-01 -6.5986387431621552e-02</leafValues></_>
    <_>
      <internalNodes>
        0 -1 293166 -9.0811023255810142e-05</internalNodes>
      <leafValues>
        -9.2201989889144897e-01 7.2137802839279175e-02</leafValues></_>
    <_>
      <internalNodes>
        0 -1 72389 1.9438620656728745e-02</internalNodes>
      <leafValues>
        -3.0765155330300331e-02 1.</leafValues></_>
    <_>
      <internalNodes>
        0 -1 8776 5.1019345410168171e-03</internalNodes>
      <leafValues>
        3.1251009553670883e-02 -1.</leafValues></_>
    <_>
      <internalNodes>
        0 -1 18577 7.6278316555544734e-04</internalNodes>
      <leafValues>
        -2.2221570834517479e-02 1.</leafValues></_>
    <_>
      <internalNodes>
        0 -1 198049 9.3095526099205017e-03</internalNodes>
      <leafValues>
        2.0904762670397758e-02 -1.</leafValues></_>
    <_>
      <internalNodes>
        0 -1 197939 1.7027504509314895e-04</internalNodes>
      <leafValues>
        -1.7569018527865410e-02 1.</leafValues></_>
    <_>
      <internalNodes>
        0 -1 289665 1.7242349713342264e-05</internalNodes>
      <leafValues>
        1.5066510066390038e-02 -1.</leafValues></_>
    <_>
      <internalNodes>
        0 -1 152035 1.3992034837428946e-05</internalNodes>
      <leafValues>
        -4.8027480952441692e-03 1.</leafValues></_>
    <_>
      <internalNodes>
        0 -1 288183 1.7406445113010705e-04</internalNodes>
      <leafValues>
        4.2457859963178635e-03 -1.</leafValues></_>
    <_>
      <internalNodes>
        0 -1 268626 4.8283932846970856e-04</internalNodes>
      <leafValues>
        -1.0406034998595715e-02 1.</leafValues></_>
    <_>
      <internalNodes>
        0 -1 21235 -9.7874499857425690e-02</internalNodes>
      <leafValues>
        -9.2283082008361816e-01 1.1479659937322140e-02</leafValues></_>
    <_>
      <internalNodes>
        0 -1 272661 -2.4235734599642456e-04</internalNodes>
      <leafValues>
        1. -1.4641206711530685e-02</leafValues></_>
    <_>
      <internalNodes>
        0 -1 14961 -1.3857034500688314e-03</internalNodes>
      <leafValues>
        -1. 1.1975959874689579e-02</leafValues></_>
    <_>
      <internalNodes>
        0 -1 14087 -2.0376720931380987e-03</internalNodes>
      <leafValues>
        1. -1.1597204866120592e-04</leafValues></_>
    <_>
      <internalNodes>
        0 -1 14087 -1.1945719597861171e-03</internalNodes>
      <leafValues>
        -1. 2.5500089395791292e-04</leafValues></_>
    <_>
      <internalNodes>
        0 -1 14087 -2.0376720931380987e-03</internalNodes>
      <leafValues>
        1. -2.5500089395791292e-04</leafValues></_>
    <_>
      <internalNodes>
        0 -1 14087 -1.1945719597861171e-03</internalNodes>
      <leafValues>
        -1. 2.5500089395791292e-04</leafValues></_>
    <_>
      <internalNodes>
        0 -1 14087 -2.0376720931380987e-03</internalNodes>
      <leafValues>
        1. -2.5500089395791292e-04</leafValues></_>
    <_>
      <internalNodes>
        0 -1 14087 -1.1945719597861171e-03</internalNodes>
      <leafValues>
        -1. 2.5500089395791292e-04</leafValues></_>
    <_>
      <internalNodes>
        0 -1 14087 -2.0376720931380987e-03</internalNodes>
      <leafValues>
        1. -2.5500089395791292e-04</leafValues></_>
    <_>
      <internalNodes>
        0 -1 14087 -1.1945719597861171e-03</internalNodes>
      <leafValues>
        -1. 2.5500089395791292e-04</leafValues></_>
    <_>
      <internalNodes>
        0 -1 14087 -2.0376720931380987e-03</internalNodes>
      <leafValues>
        1. -2.5500089395791292e-04</leafValues></_>
    <_>
      <internalNodes>
        0 -1 14087 -1.1945719597861171e-03</internalNodes>
      <leafValues>
        -1. 2.5500089395791292e-04</leafValues></_>
    <_>
      <internalNodes>
        0 -1 14087 -2.0376720931380987e-03</internalNodes>
      <leafValues>
        1. -2.5500089395791292e-04</leafValues></_>
    <_>
      <internalNodes>
        0 -1 14087 -1.1945719597861171e-03</internalNodes>
      <leafValues>
        -1. 2.5500089395791292e-04</leafValues></_>
    <_>
      <internalNodes>
        0 -1 14087 -2.0376720931380987e-03</internalNodes>
      <leafValues>
        1. -2.5500089395791292e-04</leafValues></_>
    <_>
      <internalNodes>
        0 -1 14087 -1.1945719597861171e-03</internalNodes>
      <leafValues>
        -1. 2.5500089395791292e-04</leafValues></_>
    <_>
      <internalNodes>
        0 -1 14087 -2.0376720931380987e-03</internalNodes>
      <leafValues>
        1. -2.5500089395791292e-04</leafValues></_>
    <_>
      <internalNodes>
        0 -1 14087 -1.1945719597861171e-03</internalNodes>
      <leafValues>
        -1. 2.5500089395791292e-04</leafValues></_>
    <_>
      <internalNodes>
        0 -1 14087 -2.0376720931380987e-03</internalNodes>
      <leafValues>
        1. -2.5500089395791292e-04</leafValues></_>
    <_>
      <internalNodes>
        0 -1 14087 -1.1945719597861171e-03</internalNodes>
      <leafValues>
        -1. 2.5500089395791292e-04</leafValues></_>
    <_>
      <internalNodes>
        0 -1 14087 -2.0376720931380987e-03</internalNodes>
      <leafValues>
        1. -2.5500089395791292e-04</leafValues></_>
    <_>
      <internalNodes>
        0 -1 14087 -1.1945719597861171e-03</internalNodes>
      <leafValues>
        -1. 2.5500089395791292e-04</leafValues></_>
    <_>
      <internalNodes>
        0 -1 14087 -2.0376720931380987e-03</internalNodes>
      <leafValues>
        1. -2.5500089395791292e-04</leafValues></_>
    <_>
      <internalNodes>
        0 -1 14087 -1.1945719597861171e-03</internalNodes>
      <leafValues>
        -1. 2.5500089395791292e-04</leafValues></_>
    <_>
      <internalNodes>
        0 -1 14087 -2.0376720931380987e-03</internalNodes>
      <leafValues>
        1. -2.5500089395791292e-04</leafValues></_>
    <_>
      <internalNodes>
        0 -1 14087 -1.1945719597861171e-03</internalNodes>
      <leafValues>
        -1. 2.5500089395791292e-04</leafValues></_>
    <_>
      <internalNodes>
        0 -1 14087 -2.0376720931380987e-03</internalNodes>
      <leafValues>
        1. -2.5500089395791292e-04</leafValues></_>
    <_>
      <internalNodes>
        0 -1 14087 -1.1945719597861171e-03</internalNodes>
      <leafValues>
        -1. 2.5500089395791292e-04</leafValues></_>
    <_>
      <internalNodes>
        0 -1 14087 -2.0376720931380987e-03</internalNodes>
      <leafValues>
        1. -2.5500089395791292e-04</leafValues></_>
    <_>
      <internalNodes>
        0 -1 14087 -1.1945719597861171e-03</internalNodes>
      <leafValues>
        -1. 2.5500089395791292e-04</leafValues></_>
    <_>
      <internalNodes>
        0 -1 14087 -2.0376720931380987e-03</internalNodes>
      <leafValues>
        1. -2.5500089395791292e-04</leafValues></_>
    <_>
      <internalNodes>
        0 -1 14087 -1.1945719597861171e-03</internalNodes>
      <leafValues>
        -1. 2.5500089395791292e-04</leafValues></_>
    <_>
      <internalNodes>
        0 -1 14087 -2.0376720931380987e-03</internalNodes>
      <leafValues>
        1. -2.5500089395791292e-04</leafValues></_>
    <_>
      <internalNodes>
        0 -1 14087 -1.1945719597861171e-03</internalNodes>
      <leafValues>
        -1. 2.5500089395791292e-04</leafValues></_>
    <_>
      <internalNodes>
        0 -1 14087 -2.0376720931380987e-03</internalNodes>
      <leafValues>
        1. -2.5500089395791292e-04</leafValues></_>
    <_>
      <internalNodes>
        0 -1 14087 -1.1945719597861171e-03</internalNodes>
      <leafValues>
        -1. 2.5500089395791292e-04</leafValues></_>
    <_>
      <internalNodes>
        0 -1 14087 -2.0376720931380987e-03</internalNodes>
      <leafValues>
        1. -2.5500089395791292e-04</leafValues></_>
    <_>
      <internalNodes>
        0 -1 14087 -1.1945719597861171e-03</internalNodes>
      <leafValues>
        -1. 2.5500089395791292e-04</leafValues></_>
    <_>
      <internalNodes>
        0 -1 14087 -2.0376720931380987e-03</internalNodes>
      <leafValues>
        1. -2.5500089395791292e-04</leafValues></_>
    <_>
      <internalNodes>
        0 -1 14087 -1.1945719597861171e-03</internalNodes>
      <leafValues>
        -1. 2.5500089395791292e-04</leafValues></_>
    <_>
      <internalNodes>
        0 -1 14087 -2.0376720931380987e-03</internalNodes>
      <leafValues>
        1. -2.5500089395791292e-04</leafValues></_>
    <_>
      <internalNodes>
        0 -1 14087 -1.1945719597861171e-03</internalNodes>
      <leafValues>
        -1. 2.5500089395791292e-04</leafValues></_>
    <_>
      <internalNodes>
        0 -1 14087 -2.0376720931380987e-03</internalNodes>
      <leafValues>
        1. -2.5500089395791292e-04</leafValues></_>
    <_>
      <internalNodes>
        0 -1 14087 -1.1945719597861171e-03</internalNodes>
      <leafValues>
        -1. 2.5500089395791292e-04</leafValues></_>
    <_>
      <internalNodes>
        0 -1 14087 -2.0376720931380987e-03</internalNodes>
      <leafValues>
        1. -2.5500089395791292e-04</leafValues></_>
    <_>
      <internalNodes>
        0 -1 14087 -1.1945719597861171e-03</internalNodes>
      <leafValues>
        -1. 2.5500089395791292e-04</leafValues></_>
    <_>
      <internalNodes>
        0 -1 14087 -2.0376720931380987e-03</internalNodes>
      <leafValues>
        1. -2.5500089395791292e-04</leafValues></_>
    <_>
      <internalNodes>
        0 -1 14087 -1.1945719597861171e-03</internalNodes>
      <leafValues>
        -1. 2.5500089395791292e-04</leafValues></_>
    <_>
      <internalNodes>
        0 -1 14087 -2.0376720931380987e-03</internalNodes>
      <leafValues>
        1. -2.5500089395791292e-04</leafValues></_>
    <_>
      <internalNodes>
        0 -1 14087 -1.1945719597861171e-03</internalNodes>
      <leafValues>
        -1. 2.5500089395791292e-04</leafValues></_>
    <_>
      <internalNodes>
        0 -1 14087 -2.0376720931380987e-03</internalNodes>
      <leafValues>
        1. -2.5500089395791292e-04</leafValues></_>
    <_>
      <internalNodes>
        0 -1 14087 -1.1945719597861171e-03</internalNodes>
      <leafValues>
        -1. 2.5500089395791292e-04</leafValues></_>
    <_>
      <internalNodes>
        0 -1 14087 -2.0376720931380987e-03</internalNodes>
      <leafValues>
        1. -2.5500089395791292e-04</leafValues></_>
    <_>
      <internalNodes>
        0 -1 14087 -1.1945719597861171e-03</internalNodes>
      <leafValues>
        -1. 2.5500089395791292e-04</leafValues></_>
    <_>
      <internalNodes>
        0 -1 14087 -2.0376720931380987e-03</internalNodes>
      <leafValues>
        1. -2.5500089395791292e-04</leafValues></_>
    <_>
      <internalNodes>
        0 -1 14087 -1.1945719597861171e-03</internalNodes>
      <leafValues>
        -1. 2.5500089395791292e-04</leafValues></_>
    <_>
      <internalNodes>
        0 -1 14087 -2.0376720931380987e-03</internalNodes>
      <leafValues>
        1. -2.5500089395791292e-04</leafValues></_>
    <_>
      <internalNodes>
        0 -1 14087 -1.1945719597861171e-03</internalNodes>
      <leafValues>
        -1. 2.5500089395791292e-04</leafValues></_>
    <_>
      <internalNodes>
        0 -1 14087 -2.0376720931380987e-03</internalNodes>
      <leafValues>
        1. -2.5500089395791292e-04</leafValues></_>
    <_>
      <internalNodes>
        0 -1 14087 -1.1945719597861171e-03</internalNodes>
      <leafValues>
        -1. 2.5500089395791292e-04</leafValues></_>
    <_>
      <internalNodes>
        0 -1 14087 -2.0376720931380987e-03</internalNodes>
      <leafValues>
        1. -2.5500089395791292e-04</leafValues></_>
    <_>
      <internalNodes>
        0 -1 14087 -1.1945719597861171e-03</internalNodes>
      <leafValues>
        -1. 2.5500089395791292e-04</leafValues></_>
    <_>
      <internalNodes>
        0 -1 14087 -2.0376720931380987e-03</internalNodes>
      <leafValues>
        1. -2.5500089395791292e-04</leafValues></_>
    <_>
      <internalNodes>
        0 -1 14087 -1.1945719597861171e-03</internalNodes>
      <leafValues>
        -1. 2.5500089395791292e-04</leafValues></_>
    <_>
      <internalNodes>
        0 -1 14087 -2.0376720931380987e-03</internalNodes>
      <leafValues>
        1. -2.5500089395791292e-04</leafValues></_>
    <_>
      <internalNodes>
        0 -1 14087 -1.1945719597861171e-03</internalNodes>
      <leafValues>
        -1. 2.5500089395791292e-04</leafValues></_>
    <_>
      <internalNodes>
        0 -1 14087 -2.0376720931380987e-03</internalNodes>
      <leafValues>
        1. -2.5500089395791292e-04</leafValues></_>
    <_>
      <internalNodes>
        0 -1 14087 -1.1945719597861171e-03</internalNodes>
      <leafValues>
        -1. 2.5500089395791292e-04</leafValues></_>
    <_>
      <internalNodes>
        0 -1 14087 -2.0376720931380987e-03</internalNodes>
      <leafValues>
        1. -2.5500089395791292e-04</leafValues></_>
    <_>
      <internalNodes>
        0 -1 14087 -1.1945719597861171e-03</internalNodes>
      <leafValues>
        -1. 2.5500089395791292e-04</leafValues></_></weakClassifiers></stage9>
</opencv_storage>
